/* Auto-generated true S6 weights and scaling from PyTorch */
#if MAMBA_D != 6 || MAMBA_N != 32
#error "Dimension mismatch: this file was generated for MAMBA_D=6, MAMBA_N=32. "\
       "Rebuild mamba_weights.c or update the macros in mamba_s6.h."
#endif

#include "mamba_s6.h"

const float MAMBA_A[6][32] = {
    { -0.179380f, -0.228207f, -0.542068f, -0.462931f, -0.750753f, -1.000485f, -3.572472f, -2.408353f, -1.433061f, -1.500124f, -2.180608f, -1.399099f, -1.090227f, -1.642500f, -1.887328f, -2.442887f, -3.959171f, -1.286322f, -2.854258f, -2.854264f, -3.740133f, -4.161477f, -3.623560f, -2.572456f, -4.837527f, -2.623764f, -3.290215f, -4.952170f, -4.659422f, -6.924885f, -3.773175f, -7.409934f },
    { -0.156011f, -0.420251f, -1.000751f, -1.386403f, -1.016419f, -1.658074f, -1.996941f, -0.604250f, -2.487819f, -1.331545f, -2.260875f, -3.080216f, -5.309820f, -3.225550f, -3.552727f, -1.349103f, -1.484452f, -4.674347f, -5.398681f, -1.367625f, -3.467289f, -2.150825f, -5.416638f, -5.471961f, -5.374573f, -6.809732f, -6.635487f, -5.620516f, -5.318213f, -1.698758f, -8.043315f, -3.441432f },
    { -0.267758f, -0.226371f, -0.297252f, -0.521606f, -0.917709f, -1.163250f, -0.631024f, -1.244147f, -1.667737f, -0.992451f, -2.734697f, -2.074880f, -3.863508f, -2.473340f, -2.331030f, -1.415019f, -1.118767f, -2.297444f, -3.335292f, -2.049047f, -3.812966f, -1.840268f, -3.628113f, -3.762326f, -4.232557f, -5.875366f, -3.325991f, -4.432992f, -4.742653f, -3.283731f, -5.150123f, -3.720269f },
    { -0.265763f, -0.539292f, -0.909431f, -1.365435f, -1.633012f, -1.061104f, -0.641520f, -2.020817f, -1.798118f, -3.828685f, -1.309222f, -2.934434f, -3.530524f, -3.591486f, -4.571104f, -5.871877f, -3.988197f, -6.574735f, -4.845649f, -5.064297f, -4.739249f, -6.290584f, -8.389032f, -6.800659f, -5.508515f, -4.681411f, -5.363169f, -7.198419f, -7.071457f, -6.100991f, -7.699738f, -7.780326f },
    { -0.528222f, -0.861383f, -0.576542f, -2.219982f, -1.025588f, -1.369298f, -1.476073f, -2.085750f, -2.395059f, -4.691740f, -4.265233f, -3.197653f, -1.900773f, -2.449730f, -3.876498f, -8.317232f, -6.252665f, -7.746251f, -4.388929f, -7.948694f, -5.627422f, -8.424925f, -6.457304f, -7.428756f, -5.798272f, -4.346975f, -12.156970f, -6.702906f, -7.071470f, -9.485970f, -8.441493f, -8.529253f },
    { -0.234577f, -0.575090f, -0.769450f, -2.137835f, -1.496455f, -1.577690f, -1.988600f, -3.564766f, -2.133100f, -3.699089f, -4.244035f, -1.874588f, -2.015749f, -6.675635f, -3.534753f, -7.116936f, -6.133796f, -3.300494f, -6.342530f, -7.901551f, -4.784095f, -7.635810f, -7.940081f, -7.205753f, -6.162275f, -14.544123f, -5.583807f, -6.104196f, -6.637836f, -9.139627f, -8.938868f, -9.791196f },
};
const float MAMBA_D_SKIP[6] = {
    1.019834f, 0.641271f, 0.889045f, 1.002002f, 1.037796f, 1.016231f
};
const float MAMBA_OUT_BIAS[6] = {
    0.012744f, -0.012347f, 0.004804f, -0.013003f, 0.007423f, 0.008292f
};
const float MAMBA_W_DELTA[6][6] = {
    { -0.160918f, -0.089725f, -0.002145f, -0.041026f, 0.060797f, -0.185175f },
    { -0.369042f, 0.111749f, -0.515941f, -0.371886f, -0.023054f, -0.225706f },
    { -0.238855f, -0.078326f, -0.006125f, -0.108312f, -0.156524f, -0.279245f },
    { 0.049531f, 0.227401f, -0.175257f, -0.337843f, -0.164665f, -0.462314f },
    { 0.486216f, -0.106196f, -0.219838f, -0.310478f, 0.038796f, 0.159610f },
    { -0.171434f, 0.014177f, 0.008751f, -0.112932f, 0.217607f, -0.580964f },
};
const float MAMBA_B_DELTA[6] = {
    -0.827244f, -0.499223f, -0.375601f, -0.629510f, -0.603109f, -0.358580f
};
const float MAMBA_W_B[32][6] = {
    { 0.050164f, -0.050338f, 0.143779f, -0.013361f, 0.041179f, -0.034061f },
    { 0.035736f, 0.017135f, -0.006223f, -0.056246f, -0.214259f, -0.079335f },
    { 0.108704f, 0.018280f, 0.080659f, -0.001462f, 0.065754f, 0.003194f },
    { -0.112668f, -0.085864f, 0.036781f, -0.086366f, 0.100432f, -0.094899f },
    { -0.073408f, 0.041626f, 0.033874f, -0.017644f, -0.050194f, -0.002232f },
    { 0.002495f, 0.041577f, -0.003422f, -0.000966f, 0.033196f, -0.012122f },
    { 0.018598f, -0.061777f, 0.262088f, 0.099675f, -0.032367f, -0.060299f },
    { -0.145226f, 0.177507f, 0.045891f, 0.033985f, -0.090022f, -0.006306f },
    { 0.001914f, -0.000569f, -0.003695f, 0.000473f, 0.001961f, 0.001399f },
    { 0.116512f, 0.013503f, 0.066439f, 0.129227f, -0.034227f, 0.159522f },
    { -0.008321f, 0.020410f, -0.053182f, -0.049958f, 0.057227f, -0.087248f },
    { -0.004008f, -0.043771f, 0.000285f, -0.039946f, -0.029948f, -0.012577f },
    { 0.223259f, -0.041859f, 0.181951f, -0.098490f, -0.111372f, -0.173078f },
    { -0.024060f, -0.082373f, 0.060303f, -0.090317f, -0.079853f, 0.049716f },
    { -0.016463f, 0.020841f, -0.003190f, -0.024068f, -0.006185f, -0.040839f },
    { -0.014154f, 0.131511f, -0.060984f, -0.009158f, 0.059090f, -0.193906f },
    { 0.023485f, 0.007169f, 0.230392f, 0.118914f, 0.155039f, 0.082763f },
    { -0.025374f, 0.095341f, -0.046418f, 0.171111f, 0.048713f, 0.138362f },
    { -0.001149f, 0.010737f, 0.094721f, -0.022822f, -0.041256f, 0.024119f },
    { -0.014445f, 0.014273f, 0.138772f, 0.099603f, 0.174488f, 0.123733f },
    { -0.009265f, 0.002427f, -0.018454f, 0.017366f, 0.031981f, 0.000057f },
    { -0.025942f, 0.064828f, 0.141219f, -0.006323f, 0.140777f, 0.077318f },
    { 0.146658f, -0.169272f, 0.087404f, 0.069508f, -0.150537f, 0.024493f },
    { -0.040972f, 0.099589f, 0.030599f, 0.077892f, -0.063985f, 0.085408f },
    { -0.012206f, 0.021825f, 0.038948f, -0.019465f, -0.028526f, 0.004030f },
    { -0.291109f, -0.195471f, -0.015941f, -0.106994f, -0.019683f, -0.008357f },
    { -0.039138f, 0.051474f, 0.163102f, 0.157210f, -0.028182f, 0.090629f },
    { 0.038081f, 0.075944f, -0.011665f, -0.030097f, -0.036526f, -0.021352f },
    { 0.098093f, -0.109669f, 0.089564f, 0.027363f, -0.066563f, 0.044667f },
    { -0.111305f, -0.047721f, 0.084645f, -0.057640f, 0.158351f, 0.191625f },
    { 0.322111f, -0.082464f, 0.078733f, 0.130143f, 0.114916f, 0.036535f },
    { -0.020855f, -0.102187f, -0.020635f, 0.029323f, -0.024241f, 0.082934f },
};
const float MAMBA_W_C[32][6] = {
    { -0.106868f, 0.121112f, 0.032604f, -0.035784f, -0.035352f, 0.004351f },
    { 0.191371f, -0.014481f, 0.090404f, 0.018790f, -0.039978f, 0.007920f },
    { 0.095652f, 0.044120f, 0.014936f, 0.086232f, 0.032606f, -0.140839f },
    { -0.075001f, 0.067496f, -0.147188f, 0.024311f, 0.025899f, -0.032355f },
    { -0.039841f, 0.057378f, -0.000268f, -0.060176f, -0.065184f, 0.003940f },
    { 0.026047f, 0.025050f, 0.017650f, -0.006438f, 0.034585f, -0.001423f },
    { 0.095378f, -0.109971f, -0.274343f, 0.038298f, 0.062815f, 0.010314f },
    { -0.254988f, 0.063599f, 0.059582f, 0.123466f, -0.029717f, -0.038633f },
    { 0.003930f, -0.000170f, -0.003033f, -0.000257f, 0.000356f, 0.002792f },
    { 0.202920f, -0.027528f, 0.057683f, 0.089352f, 0.013857f, -0.046994f },
    { 0.000678f, 0.071818f, 0.062715f, 0.020587f, 0.055712f, 0.085620f },
    { -0.052150f, -0.033141f, -0.024062f, 0.010509f, 0.002519f, -0.011263f },
    { -0.334022f, -0.128335f, 0.090432f, 0.000382f, 0.110233f, -0.061878f },
    { -0.024458f, 0.043376f, -0.058705f, 0.077057f, 0.012288f, -0.108674f },
    { -0.078088f, -0.006510f, 0.022616f, -0.026450f, 0.028620f, 0.001135f },
    { -0.144913f, -0.016061f, -0.200338f, 0.034072f, -0.097343f, -0.003129f },
    { 0.169542f, -0.116510f, 0.004662f, 0.105367f, 0.071244f, 0.186459f },
    { 0.241948f, 0.016358f, 0.050398f, -0.117961f, -0.008520f, 0.009659f },
    { -0.007799f, -0.013455f, -0.044334f, 0.035126f, 0.039774f, -0.075049f },
    { 0.118757f, -0.142687f, 0.117914f, 0.023319f, -0.030145f, 0.150525f },
    { 0.005789f, 0.010061f, 0.024940f, 0.000806f, 0.006894f, 0.007242f },
    { 0.079562f, -0.104833f, 0.026527f, 0.109699f, 0.013733f, 0.158964f },
    { -0.141487f, 0.175475f, -0.087886f, -0.103962f, 0.034271f, -0.149535f },
    { 0.063289f, -0.052433f, 0.004807f, -0.089841f, 0.100203f, -0.083864f },
    { 0.017616f, -0.015470f, -0.039793f, 0.017737f, 0.026147f, -0.011358f },
    { 0.182298f, 0.221913f, -0.078302f, 0.168867f, 0.059883f, 0.091084f },
    { 0.078508f, -0.026341f, -0.102395f, -0.116313f, 0.015847f, -0.202484f },
    { -0.036966f, -0.042947f, 0.007510f, 0.031552f, 0.082032f, 0.015580f },
    { -0.090449f, 0.078489f, -0.120997f, -0.049593f, -0.023882f, -0.080107f },
    { -0.053631f, -0.041102f, 0.291816f, 0.028521f, -0.027895f, 0.117286f },
    { -0.278685f, 0.020388f, -0.084687f, -0.144789f, -0.253464f, -0.103857f },
    { -0.016072f, 0.063512f, 0.087204f, -0.059489f, -0.019744f, -0.073467f },
};

/* Z-Score Normalization Constants (HuGaDB Right Foot Only) */
const float MAMBA_X_MEAN[6] = {
    -0.001565f, -0.002098f, 0.001348f, 0.001064f, -0.000018f, -0.000582f
};
const float MAMBA_X_STD[6] = {
    0.999110f, 0.998102f, 0.999598f, 0.998022f, 1.001201f, 1.000631f
};
