/* Auto-generated true S6 weights and scaling from PyTorch */
#if MAMBA_D != 6 || MAMBA_N != 64
#error "Dimension mismatch: this file was generated for MAMBA_D=6, MAMBA_N=64. "\
       "Rebuild mamba_weights.c or update the macros in mamba_s6.h."
#endif

#include "mamba_s6.h"

const float MAMBA_A[6][64] = {
    { -0.163244f, -0.309195f, -0.523610f, -0.871463f, -0.996369f, -1.027785f, -1.322140f, -1.392379f, -1.711347f, -1.966246f, -2.078424f, -2.088293f, -2.442410f, -2.499903f, -2.664545f, -2.918060f, -3.045189f, -3.348286f, -3.556680f, -3.668636f, -3.936968f, -4.016379f, -4.227466f, -4.698614f, -4.896469f, -4.536806f, -4.858339f, -4.783451f, -6.129479f, -6.232929f, -5.521529f, -6.099030f, -6.130481f, -6.680596f, -7.226918f, -6.659669f, -7.150717f, -6.771345f, -7.192087f, -7.148851f, -8.051814f, -8.450687f, -9.038121f, -9.679795f, -8.697149f, -8.833954f, -8.821557f, -8.989601f, -9.534606f, -9.830938f, -9.793907f, -11.950017f, -11.461337f, -10.026834f, -10.997743f, -10.462799f, -10.516180f, -11.345309f, -11.126638f, -13.051798f, -12.541330f, -13.470004f, -10.915356f, -13.169898f },
    { -0.204719f, -0.309910f, -0.577816f, -0.764680f, -0.853411f, -0.940293f, -1.277375f, -1.458054f, -1.851767f, -1.594271f, -1.867651f, -1.470353f, -2.588569f, -1.752169f, -2.384398f, -3.306600f, -2.617586f, -2.838266f, -2.384447f, -3.039853f, -2.518170f, -4.267882f, -3.820626f, -4.474769f, -3.875185f, -4.502576f, -4.773362f, -5.131773f, -4.816756f, -4.843874f, -3.985259f, -6.004393f, -4.740595f, -6.233428f, -3.890238f, -5.055473f, -6.953915f, -5.242481f, -6.941495f, -6.766499f, -5.281995f, -7.519527f, -5.904727f, -6.858170f, -8.323187f, -5.780996f, -7.941350f, -9.017305f, -7.835454f, -7.984729f, -6.067046f, -10.287924f, -7.735667f, -9.272108f, -8.060379f, -8.537124f, -10.750873f, -10.801257f, -7.967527f, -8.624087f, -11.203812f, -9.772820f, -11.342962f, -9.396165f },
    { -0.181878f, -0.455131f, -0.537051f, -0.703543f, -0.975241f, -1.117255f, -1.065971f, -1.460985f, -1.799799f, -1.731138f, -1.889035f, -1.472754f, -2.178528f, -1.881346f, -2.569787f, -3.085462f, -3.174551f, -3.634830f, -2.522059f, -3.769404f, -2.991168f, -4.237374f, -4.277947f, -5.107176f, -4.227403f, -4.897714f, -5.870185f, -5.975107f, -4.455037f, -4.873219f, -5.060602f, -6.635866f, -5.744094f, -6.810102f, -5.399986f, -6.083477f, -6.827384f, -7.398224f, -6.961279f, -8.742462f, -6.129393f, -7.144114f, -6.176625f, -5.753186f, -8.879239f, -7.224000f, -7.437247f, -10.358033f, -10.930179f, -8.580097f, -7.658689f, -9.697224f, -7.933814f, -9.775319f, -9.434886f, -8.636482f, -11.291759f, -9.319174f, -10.449014f, -10.003293f, -10.701271f, -8.870270f, -13.439654f, -10.686203f },
    { -0.251335f, -0.321506f, -0.721112f, -1.042872f, -1.066165f, -1.248284f, -1.101171f, -1.944595f, -1.941620f, -2.304590f, -2.098836f, -2.837162f, -2.753578f, -3.349780f, -3.372204f, -3.313227f, -3.944517f, -3.489419f, -4.459709f, -4.636839f, -5.250537f, -4.724052f, -5.368185f, -4.548660f, -5.690232f, -4.928970f, -4.621910f, -4.852183f, -5.509222f, -6.635854f, -5.864886f, -6.081040f, -6.052090f, -5.937607f, -7.974973f, -6.654218f, -7.605617f, -7.315290f, -6.876496f, -7.779048f, -8.046739f, -8.913326f, -8.933232f, -8.042031f, -9.019167f, -10.733992f, -7.524131f, -7.985710f, -9.159021f, -11.574682f, -11.065682f, -10.131837f, -11.401918f, -9.003144f, -10.807952f, -9.744982f, -12.183995f, -13.238585f, -11.241828f, -12.864539f, -12.859083f, -11.269743f, -10.410937f, -13.282026f },
    { -0.286946f, -0.389700f, -0.740153f, -0.724124f, -1.035990f, -1.406339f, -1.579044f, -1.930034f, -1.817576f, -2.230670f, -2.280176f, -3.044042f, -2.586928f, -3.584657f, -3.544794f, -2.772096f, -3.846708f, -4.398965f, -4.290865f, -4.493216f, -4.603708f, -4.885326f, -4.938349f, -3.930088f, -4.992262f, -6.032536f, -6.031175f, -5.779729f, -5.688240f, -5.252549f, -8.063919f, -5.809562f, -8.344543f, -7.544381f, -8.430345f, -8.864576f, -7.171792f, -9.119508f, -8.750556f, -7.805796f, -9.177503f, -7.039845f, -8.384418f, -10.220991f, -9.955178f, -10.249902f, -10.768278f, -9.205292f, -10.390403f, -8.904058f, -10.878910f, -9.532574f, -9.310265f, -12.268942f, -11.063503f, -13.278572f, -11.303498f, -10.304622f, -13.220356f, -11.223293f, -10.375641f, -12.682718f, -14.222595f, -13.096584f },
    { -0.211426f, -0.422782f, -0.612542f, -0.738478f, -0.996052f, -1.189786f, -1.430032f, -1.983146f, -1.832678f, -2.611883f, -2.538596f, -3.473943f, -2.677873f, -4.051087f, -3.659101f, -3.403978f, -3.708059f, -3.428760f, -5.335415f, -4.144523f, -5.801984f, -5.380019f, -5.749578f, -4.595315f, -6.603050f, -5.357961f, -5.098996f, -5.427175f, -6.900683f, -5.938630f, -7.032206f, -5.921534f, -6.755419f, -6.585289f, -9.182162f, -7.711443f, -8.136701f, -8.357287f, -8.363419f, -7.726740f, -10.154160f, -8.342162f, -10.271160f, -11.148022f, -8.950644f, -10.657459f, -10.196377f, -9.372766f, -11.170232f, -11.376225f, -12.076984f, -9.802179f, -11.971481f, -11.209327f, -12.523149f, -12.344505f, -10.676950f, -11.710688f, -13.606661f, -13.922660f, -12.472841f, -14.289257f, -11.940619f, -16.019512f },
};
const float MAMBA_D_SKIP[6] = {
    0.501705f, 0.471031f, 0.474371f, 0.578497f, 0.609821f, 0.579024f
};
const float MAMBA_W_OUT[6][6] = {
    { 1.300645f, -0.044643f, 0.165828f, 0.149925f, -0.162812f, 0.068337f },
    { -0.019115f, 1.297957f, -0.043531f, 0.174025f, -0.063652f, -0.135862f },
    { 0.171569f, -0.120536f, 1.285619f, 0.024159f, 0.060247f, 0.158657f },
    { -0.112001f, -0.189040f, -0.093852f, 1.340028f, -0.055039f, 0.103772f },
    { 0.056803f, 0.020653f, 0.021535f, 0.005725f, 1.327884f, -0.034826f },
    { -0.043544f, 0.064784f, 0.044099f, -0.057647f, 0.093438f, 1.293319f },
};
const float MAMBA_BIAS_OUT[6] = {
    0.033118f, 0.038466f, -0.010451f, -0.000356f, 0.001727f, 0.016556f
};
const float MAMBA_SCALE_W_DELTA = 0.00505981f;
const int8_t MAMBA_W_DELTA[6][6] = {
    { -45, -61, 18, -105, 39, -127 },
    { -89, 41, 9, -31, -42, -96 },
    { 54, 50, -22, -42, -32, -17 },
    { -23, 41, -8, 19, -50, -60 },
    { 25, -59, -38, -30, 51, -4 },
    { 21, -40, -48, -49, 16, -17 },
};
const float MAMBA_B_DELTA[6] = {
    -0.592720f, -0.663717f, -0.575620f, -0.401976f, -0.354080f, -0.305996f
};
const float MAMBA_SCALE_W_B = 0.00103612f;
const int8_t MAMBA_W_B[64][6] = {
    { 40, 63, 36, -3, -78, -28 },
    { -33, 54, -119, 29, -50, -4 },
    { -30, -25, 9, -7, -12, 0 },
    { 41, -3, -17, 21, 49, 25 },
    { 3, -6, 14, -6, 12, -4 },
    { -15, -33, -3, -22, -71, 20 },
    { -37, -13, 95, 50, 34, -21 },
    { -21, 13, 45, -9, -14, -57 },
    { 22, 27, 13, -10, 10, -27 },
    { -31, -4, -25, -25, -57, -32 },
    { -55, -17, -17, -43, -93, 18 },
    { 40, 43, 92, 44, 127, 84 },
    { 21, 6, 56, 20, 32, -41 },
    { -28, -7, -62, -1, -106, -60 },
    { 45, 12, 15, 37, 35, 68 },
    { -40, -41, -13, 6, -48, 44 },
    { -24, 14, 28, 7, 5, 49 },
    { 34, -24, 17, 48, -32, -19 },
    { -56, -12, -74, -19, -112, -64 },
    { 4, -6, -17, -2, -1, -59 },
    { 37, -83, 30, -6, 86, 90 },
    { -27, -65, -22, 8, -39, 30 },
    { 39, 22, 20, -28, 20, 20 },
    { -21, 44, 7, 9, -7, -15 },
    { 54, 7, 37, 6, 68, 15 },
    { -10, 6, 14, 52, -68, 28 },
    { -27, -7, -35, -18, 44, 0 },
    { 25, 10, 6, -39, -70, -4 },
    { -60, -12, -2, -2, -77, -8 },
    { -61, 6, -32, -34, -59, -10 },
    { 8, -8, -2, 40, -62, -45 },
    { 41, -5, -8, -1, 46, -21 },
    { -34, 3, 20, -60, 43, 25 },
    { -15, 56, 27, 12, 13, -1 },
    { -25, -68, -82, -23, -60, -63 },
    { 7, -35, -31, 37, -66, -44 },
    { -7, -24, 3, -21, 10, -5 },
    { -54, -68, -13, -64, 28, 50 },
    { -29, -56, -15, -11, -56, 13 },
    { -29, -47, -18, -15, 22, 21 },
    { 51, 11, 13, -12, 80, 55 },
    { 59, 32, 2, 17, 39, -6 },
    { -69, 2, -46, 1, -100, -39 },
    { 1, 20, -48, 24, -53, -7 },
    { 8, 61, 3, -1, 10, -16 },
    { 28, -29, 17, -82, 36, 49 },
    { 18, 43, 14, -5, 72, -1 },
    { -38, -16, 16, -1, -61, 18 },
    { -10, -101, -30, -40, -2, -18 },
    { -3, 65, -29, -5, -16, -26 },
    { -50, 0, -35, 57, -80, -69 },
    { 15, -13, -19, -25, 23, -28 },
    { -95, -70, -42, -41, -76, 3 },
    { -9, -49, -13, -6, -55, -7 },
    { 24, -12, 19, -28, 57, 17 },
    { 11, 18, 7, -26, 70, 29 },
    { -2, 66, -13, -19, 7, -28 },
    { -72, -35, -5, 61, -49, 39 },
    { -20, -109, -37, -93, 55, 47 },
    { -17, -120, -21, -37, 42, 34 },
    { 68, 68, 15, 43, 36, 1 },
    { 47, 19, 16, -16, 81, 14 },
    { -15, 30, 7, 17, 47, 20 },
    { -7, -122, -40, -25, 31, 33 },
};
const float MAMBA_SCALE_W_C = 0.00106130f;
const int8_t MAMBA_W_C[64][6] = {
    { 69, -6, 33, 14, -2, 5 },
    { 74, -102, 73, 4, 26, 35 },
    { -22, -11, 3, -13, -24, 45 },
    { 35, 29, -25, 25, 30, -51 },
    { 5, 1, -22, -14, 8, -2 },
    { -16, 31, 14, -30, -76, -1 },
    { 19, -54, -90, 24, 20, 65 },
    { -57, -7, -38, 4, -33, 11 },
    { -39, -21, 7, 19, 10, -8 },
    { -53, 55, -5, 3, -50, -6 },
    { -27, 65, 2, -46, -100, 33 },
    { 53, -114, 24, 14, 112, 77 },
    { 5, -43, -35, 40, 26, -3 },
    { -47, 70, -34, -18, -78, -82 },
    { 58, -46, 15, -11, 42, -3 },
    { 9, 57, -14, -18, -28, 2 },
    { 37, -18, -10, -40, 5, 44 },
    { 38, -7, -44, 14, -9, -52 },
    { -59, 80, -33, -23, -90, -61 },
    { -28, 10, 7, 36, -17, -28 },
    { 95, 13, 62, 32, 91, 55 },
    { 15, 75, 5, -5, -12, -3 },
    { 6, -36, 21, 5, 2, 35 },
    { -26, -28, -35, -7, 5, 24 },
    { 46, -50, 32, 18, 40, 15 },
    { 13, 1, -37, -40, -43, -41 },
    { -15, 32, 20, 13, 40, 24 },
    { -28, -14, 13, 14, -56, 6 },
    { -12, 32, -51, -16, -64, 9 },
    { -63, 31, -13, -2, -75, 38 },
    { 1, 12, -42, 10, -31, -66 },
    { 17, -8, 18, 18, 56, -33 },
    { -10, 6, 20, 6, 23, 79 },
    { -8, -40, -25, -24, 15, 12 },
    { -40, 93, 3, 42, -45, -50 },
    { 6, 31, -33, 17, -38, -68 },
    { 17, 25, 11, 18, 7, 16 },
    { 21, 84, 39, 12, 26, 65 },
    { 10, 66, -12, 11, -63, 13 },
    { 17, 58, -2, 8, 25, 16 },
    { 16, -41, 67, -7, 60, 39 },
    { 28, -52, 27, -6, 34, -19 },
    { -51, 46, -46, -19, -85, -37 },
    { -43, 0, -4, -28, -60, -48 },
    { -16, -55, 2, -4, 10, 5 },
    { 14, 11, 39, 32, 33, 87 },
    { -6, -39, 23, -3, 63, 13 },
    { 7, 20, -13, -11, -64, 24 },
    { 35, 81, 49, 37, -25, 8 },
    { -62, -41, 1, 0, -20, 3 },
    { -38, 34, -51, -12, -45, -84 },
    { 6, 9, 25, 27, 17, 10 },
    { -37, 124, -20, 11, -85, 13 },
    { 6, 41, -7, 22, -59, -16 },
    { 41, -7, 46, 10, 40, 38 },
    { 0, -19, 36, -4, 48, 48 },
    { -17, -55, -1, 9, 3, 39 },
    { -3, 47, -35, -53, -35, -33 },
    { 20, 108, 78, 37, 30, 50 },
    { 52, 115, 39, 23, 31, 13 },
    { 10, -74, 19, -30, 40, -33 },
    { 8, -31, 36, 10, 62, 20 },
    { -9, -14, -23, -28, 40, 17 },
    { 37, 127, 76, 19, 32, -9 },
};

/* Z-Score Normalization Constants (HuGaDB Right Foot Only) */
const float MAMBA_X_MEAN[6] = {
    -0.000000f, 0.000000f, -0.000000f, -0.000000f, -0.000000f, 0.000000f
};
const float MAMBA_X_STD[6] = {
    0.999877f, 0.999877f, 0.999877f, 0.999877f, 0.999877f, 0.999877f
};
