/* Auto-generated true S6 weights and scaling from PyTorch */
#include "mamba_s6.h"

#if MAMBA_D != 6 || MAMBA_N != 64
#error "Dimension mismatch: this file was generated for MAMBA_D=6, MAMBA_N=64. "\
       "Rebuild mamba_weights.c or update the macros in mamba_s6.h."
#endif

const float MAMBA_A[6][64] = {
    { -0.247148f, -0.540558f, -1.209862f, -1.758433f, -0.502470f, -1.335914f, -1.835134f, -2.098685f, -2.487431f, -0.997801f, -2.511383f, -2.925401f, -2.690480f, -2.819614f, -3.647111f, -4.191860f, -3.633372f, -2.742132f, -8.458666f, -1.548554f, -4.026672f, -6.976537f, -5.005778f, -4.706488f, -4.772768f, -5.290733f, -5.519182f, -1.776790f, -7.370881f, -5.300502f, -6.354939f, -6.333871f, -4.964765f, -5.487053f, -7.438813f, -7.336262f, -6.993841f, -7.872624f, -6.932584f, -9.828414f, -7.198808f, -2.102058f, -7.951607f, -8.851689f, -8.612236f, -11.552846f, -9.611625f, -6.824850f, -8.026619f, -9.366712f, -8.820723f, -10.300311f, -10.578741f, -11.334279f, -11.604369f, -10.856471f, -11.821419f, -10.184645f, -6.654536f, -5.222873f, -9.053597f, -41.198364f, -9.780709f, -10.058387f },
    { -0.213935f, -0.459326f, -0.673725f, -0.293519f, -1.491984f, -1.601500f, -2.011175f, -2.077366f, -2.144149f, -1.378121f, -2.533594f, -2.316346f, -4.301433f, -3.604323f, -3.569043f, -4.651377f, -3.961957f, -3.099376f, -6.203124f, -1.448327f, -4.425380f, -2.750932f, -3.594172f, -4.426445f, -5.209478f, -4.699811f, -6.053036f, -2.302617f, -6.145750f, -5.046132f, -6.041051f, -7.113589f, -5.165915f, -5.141002f, -7.174017f, -5.732703f, -6.943659f, -8.435805f, -6.058783f, -8.771015f, -7.573667f, -4.784501f, -7.475735f, -8.465200f, -10.488589f, -10.941088f, -9.803887f, -8.891892f, -6.538312f, -9.934525f, -10.738386f, -10.779222f, -7.446450f, -8.984669f, -11.257301f, -10.476291f, -10.955964f, -8.011939f, -23.303175f, -20.840786f, -12.804941f, -5.311560f, -12.866762f, -10.880168f },
    { -0.304809f, -0.553399f, -0.330186f, -1.004720f, -0.843068f, -1.547673f, -1.541048f, -1.650442f, -1.534449f, -2.607362f, -2.121432f, -2.093634f, -1.564845f, -2.559156f, -2.501292f, -3.267052f, -3.325097f, -2.605464f, -1.908643f, -2.173452f, -3.548445f, -3.709250f, -3.865800f, -3.915506f, -3.714151f, -3.773384f, -3.800541f, -4.311035f, -3.980098f, -4.882248f, -4.461224f, -5.005659f, -4.130337f, -4.432047f, -6.044093f, -4.811986f, -6.216288f, -6.796104f, -5.806334f, -5.489372f, -7.129962f, -6.688739f, -4.849332f, -5.822885f, -6.772368f, -15.223870f, -7.977519f, -7.928822f, -4.637928f, -7.712831f, -8.756251f, -6.964329f, -6.289857f, -8.030237f, -7.474912f, -8.792255f, -12.357609f, -7.850741f, -5.746424f, -14.221313f, -9.460680f, -6.820179f, -7.705133f, -8.467509f },
    { -0.377849f, -0.694071f, -1.093745f, -1.474386f, -2.006106f, -1.583677f, -1.591395f, -2.037755f, -2.050237f, -2.580161f, -2.294152f, -2.516814f, -3.253991f, -2.963967f, -2.863531f, -2.909782f, -2.562071f, -3.829345f, -2.045649f, -3.147496f, -4.266738f, -6.130391f, -7.070117f, -4.429034f, -4.815132f, -4.548862f, -6.215126f, -5.753437f, -7.182403f, -8.122934f, -6.700612f, -6.967950f, -6.625826f, -5.292553f, -6.838387f, -10.200941f, -8.387235f, -6.774364f, -11.401016f, -9.513191f, -8.713727f, -15.495059f, -13.597143f, -10.109932f, -8.740832f, -3.220881f, -7.339815f, -8.775701f, -20.777763f, -10.538808f, -10.766902f, -13.297023f, -11.274506f, -11.744845f, -11.309860f, -12.684475f, -7.222748f, -14.219055f, -11.817724f, -12.313848f, -11.482817f, -8.259443f, -13.154164f, -12.529181f },
    { -0.411826f, -0.736115f, -1.776167f, -2.383226f, -4.131196f, -2.040385f, -2.023451f, -2.770143f, -2.478317f, -5.139821f, -3.077831f, -3.123959f, -3.028580f, -4.358816f, -4.069418f, -4.013288f, -3.941405f, -5.185536f, -2.337272f, -14.374065f, -5.671897f, -4.361593f, -5.697599f, -5.180295f, -8.114600f, -6.752360f, -6.107811f, -11.697851f, -8.530027f, -7.515070f, -6.873169f, -6.956927f, -6.905112f, -6.996064f, -6.280984f, -8.648714f, -7.179950f, -7.317519f, -9.221426f, -9.633452f, -9.209162f, -12.688238f, -14.390754f, -11.059139f, -9.029228f, -4.193401f, -8.562729f, -9.079615f, -13.615498f, -9.678914f, -10.101280f, -11.204025f, -10.275802f, -11.815357f, -12.753633f, -12.927705f, -9.824959f, -19.965446f, -19.016119f, -22.276564f, -11.600723f, -11.890491f, -12.550095f, -13.331665f },
    { -0.489308f, -0.792623f, -1.313779f, -1.647281f, -2.858347f, -1.770806f, -1.903498f, -2.498003f, -2.500244f, -2.358449f, -3.068938f, -3.445587f, -2.389291f, -3.651946f, -4.148539f, -4.233349f, -3.424275f, -4.768397f, -4.289928f, -8.385201f, -5.171325f, -7.533627f, -6.474626f, -5.057831f, -6.483188f, -5.389331f, -6.848549f, -13.437165f, -7.892839f, -6.999289f, -6.525674f, -7.674192f, -7.682261f, -7.020729f, -7.276407f, -8.694224f, -8.556034f, -7.688446f, -9.452815f, -9.768355f, -7.367486f, -12.281008f, -12.126979f, -10.854328f, -9.266048f, -7.545702f, -9.296461f, -8.916053f, -18.237581f, -9.408472f, -9.755652f, -11.191309f, -10.709390f, -8.724842f, -11.293407f, -10.577238f, -9.245325f, -12.381181f, -28.512613f, -24.691635f, -11.347342f, -12.276766f, -11.597317f, -12.007130f },
};
const float MAMBA_D_SKIP[6] = {
    0.814662f, 0.738976f, 0.809873f, 0.864763f, 0.954444f, 0.904296f
};
const float MAMBA_W_OUT[6][6] = {
    { 0.960623f, 0.005128f, 0.183040f, 0.036776f, -0.028696f, 0.002574f },
    { 0.007971f, 0.998086f, -0.075540f, 0.080447f, -0.009345f, -0.052964f },
    { 0.139889f, -0.020311f, 1.055034f, 0.019692f, 0.035735f, 0.015732f },
    { -0.009026f, -0.038365f, -0.047261f, 1.017010f, 0.003686f, 0.025355f },
    { 0.003368f, 0.036946f, 0.006066f, 0.000256f, 1.008343f, 0.002515f },
    { -0.001332f, -0.014847f, -0.000382f, -0.001672f, 0.066104f, 1.002453f },
};
const float MAMBA_BIAS_OUT[6] = {
    0.004084f, 0.006512f, -0.006103f, 0.001674f, -0.001000f, 0.000034f
};
const float MAMBA_SCALE_W_DELTA = 0.00320953f;
const int8_t MAMBA_W_DELTA[6][6] = {
    { -41, -15, -43, -14, 14, -127 },
    { -71, 6, -32, -68, -16, -39 },
    { 71, 0, 111, -30, 33, -34 },
    { 20, 23, 51, -43, -7, -19 },
    { -51, 18, 34, -55, 31, -31 },
    { 9, -17, 2, -54, -76, 6 },
};
const float MAMBA_B_DELTA[6] = {
    -0.783830f, -1.008965f, -0.300426f, -0.889706f, -1.293109f, -0.467117f
};
const float MAMBA_SCALE_W_B = 0.00266189f;
const int8_t MAMBA_W_B[64][6] = {
    { 5, 1, 9, -5, -2, -8 },
    { -1, -1, 0, -2, -3, 3 },
    { 36, -9, 5, -10, 7, 11 },
    { 33, -1, 64, 1, -5, -8 },
    { -10, -57, 45, 11, 53, 18 },
    { 1, -1, 0, -2, -3, 3 },
    { 0, 0, 0, 0, 0, 0 },
    { 0, 0, 0, 0, 0, 0 },
    { 0, 0, 0, 0, 0, 0 },
    { 24, -13, -19, 36, -3, 22 },
    { 0, 0, 0, 0, -1, 1 },
    { 0, 0, 0, 0, 0, 0 },
    { 14, -12, 3, 22, 16, 22 },
    { 0, 0, 0, 1, 0, 0 },
    { 0, 0, 0, 0, 0, 0 },
    { 0, 0, 0, 0, 0, 0 },
    { -1, 0, 0, 2, 2, -3 },
    { 0, 0, 0, 0, 0, 0 },
    { -39, 7, -56, -39, 5, -5 },
    { -36, 7, -19, -24, 61, 20 },
    { 0, 0, 0, 0, 0, 0 },
    { -4, -16, -12, -9, -15, -26 },
    { -2, 0, 0, -2, 2, 2 },
    { -1, 0, 0, 2, 3, -4 },
    { 0, 0, 0, 1, -1, 1 },
    { 1, 0, 0, -2, -2, 3 },
    { 0, 0, 0, 0, 0, 0 },
    { 13, -27, 37, 40, 70, 78 },
    { -1, 0, 0, 0, 0, 1 },
    { 0, 0, 0, -1, -1, 2 },
    { 0, 0, 0, 0, 0, 0 },
    { 0, 0, 0, 0, 0, 0 },
    { 0, 0, 0, 0, 0, 0 },
    { 0, 0, 0, 0, -1, 0 },
    { 0, 0, 0, 0, 0, 0 },
    { 0, 0, 0, 0, 0, 0 },
    { 1, 0, 0, -2, -2, 3 },
    { -1, 0, 0, 0, -1, 0 },
    { 3, -1, 0, 3, -2, -2 },
    { -1, 0, 0, 0, 0, 1 },
    { -2, 0, 0, 1, 0, 0 },
    { 38, 9, 60, -30, -25, 7 },
    { 33, 10, -13, -8, -19, 16 },
    { 0, 0, 0, 0, 0, 0 },
    { 0, 0, 0, 0, 0, 0 },
    { -8, 54, -74, 1, 6, -23 },
    { 0, 0, 0, 0, 0, 0 },
    { 1, 0, 0, -1, 2, 0 },
    { -26, 79, 91, -61, 20, -22 },
    { -3, 0, 1, 1, -2, 0 },
    { 6, 0, -2, -4, 4, 1 },
    { -2, 0, 0, 1, 0, 1 },
    { 0, 0, 0, 1, -1, 0 },
    { 1, -1, 0, 1, -1, 0 },
    { 0, 0, 0, 0, 0, 0 },
    { 1, 0, -4, -8, 6, 1 },
    { 7, -2, -4, -6, 6, 2 },
    { 76, 44, 50, -71, -40, -52 },
    { 22, -58, 45, -71, -1, -19 },
    { 127, 38, 19, 71, 24, 16 },
    { 3, -1, 2, 1, 0, -1 },
    { -104, -2, -23, -22, -45, -16 },
    { 0, 0, 0, 0, 0, 0 },
    { 2, -1, 0, 0, 0, 0 },
};
const float MAMBA_SCALE_W_C = 0.00251354f;
const int8_t MAMBA_W_C[64][6] = {
    { 4, 0, 14, -2, 8, -4 },
    { 1, 1, 0, -1, -5, 2 },
    { 18, 15, -18, -28, -9, -1 },
    { -1, 73, 24, -26, -8, 7 },
    { -83, -9, -31, 17, -10, -14 },
    { 0, 0, 1, -1, -2, 3 },
    { 0, 0, 0, 0, 0, 0 },
    { 0, 0, 0, 0, 0, 0 },
    { 0, 0, 0, 0, 0, 0 },
    { 34, -14, -4, 41, -16, 10 },
    { 0, 0, 0, 0, -1, 1 },
    { 0, 0, 0, 0, 0, 0 },
    { 7, 4, -26, 18, 5, 21 },
    { 0, 0, 0, 0, 0, 0 },
    { 0, 0, 0, 0, 0, 0 },
    { 0, 0, 0, 0, 0, 0 },
    { 0, 0, -1, 1, 3, -3 },
    { 0, 0, 0, 0, 0, 0 },
    { 2, 25, 68, -13, -30, -17 },
    { 36, 10, 8, -17, 50, 57 },
    { 0, 0, 0, 0, 0, 0 },
    { 2, 31, -5, -7, 13, 15 },
    { 1, 0, 2, 1, -3, 0 },
    { 0, 1, 0, 2, 4, -4 },
    { 0, 0, 0, -1, 0, 0 },
    { 0, -1, 1, -1, -3, 3 },
    { 0, 0, 0, 0, 0, 0 },
    { 94, -29, 66, 32, 15, 29 },
    { 1, 0, 0, 0, -1, 0 },
    { 1, -1, 0, -1, -1, 1 },
    { 0, 0, 0, 0, 0, 0 },
    { 0, 0, 0, 0, 0, 0 },
    { 0, 0, 0, 0, 0, 0 },
    { 0, 0, 0, 0, 1, 0 },
    { 0, 0, 0, 0, 0, 0 },
    { 0, 0, 0, 0, 0, 0 },
    { -1, -1, 0, -1, -2, 3 },
    { 1, -1, 0, -1, 0, 0 },
    { -3, 2, -2, -1, 5, 0 },
    { 0, -1, 0, 0, -1, 0 },
    { 2, 0, 1, 0, 1, -1 },
    { -3, -73, 62, 10, 2, -3 },
    { -37, -7, 10, 8, 19, -20 },
    { 0, 0, 0, 0, 0, 0 },
    { 0, -1, 0, 0, 0, 0 },
    { 21, -28, 89, 16, 7, 20 },
    { 0, 0, 0, 0, 0, 0 },
    { -1, 0, 0, 1, -1, 0 },
    { 27, -101, -61, 51, -18, 40 },
    { 4, -1, -1, -2, 0, 1 },
    { -6, 1, 1, 5, -4, -1 },
    { 2, -1, 0, -1, 0, 0 },
    { 0, 0, 0, -1, 1, 0 },
    { -1, 1, -1, -1, 1, 0 },
    { 0, 0, 0, 0, 0, 0 },
    { -2, 0, 4, 8, -6, 0 },
    { -8, 3, 3, 6, -6, -2 },
    { -54, -64, 1, 97, 67, 41 },
    { 12, 26, 26, 97, 7, 23 },
    { -127, -29, -49, -61, -44, -26 },
    { -3, 1, -2, -1, 0, 0 },
    { -43, 53, -72, -49, -4, 27 },
    { 0, 0, 0, 0, 0, 0 },
    { -2, 1, -1, 0, 0, 0 },
};

/* Z-Score Normalization Constants (HuGaDB Right Foot Only) */
const float MAMBA_X_MEAN[6] = {
    -0.000000f, -0.000000f, 0.000000f, -0.000000f, 0.000000f, 0.000000f
};
const float MAMBA_X_STD[6] = {
    0.999826f, 0.999826f, 0.996441f, 0.999826f, 0.999826f, 0.999826f
};
